35
0.5111713002521813 3
-0.36414540497954057 1
-0.3883149083424749 0
-0.5536405018942949 4
-0.3511212241005418 8
0.15971737049590665 5
34
0.14266481432057246 3
0.5543760644238984 3
-0.3862409690094913 2
0.5511085204786842 3
0.30612858325890957 3
-0.35453706854861294 6
519
0.2544492017607558 3
-0.41507208867025674 1
0.21897105822074683 3
-0.17503774170184094 5
-0.6630980247637639 0
-0.494656688144642 8
74
0.671376358974495 3
0.22665736215190224 7
-0.200313218241866 6
-0.04872449836177089 5
-0.2759410833092119 8
-0.6158224429099759 1
42
0.2798377282270663 3
-0.32077203571433377 6
0.54557591631501 3
-0.2512010564179394 7
-0.28770825727546 5
0.6125888135213238 3
649
0.5297841855112017 3
-0.24967684455713857 7
0.03764999046387126 5
-0.36206802335592525 4
-0.5542569714708553 0
-0.4661315526022479 4
692
0.22826352660108243 3
-0.4828340846043518 8
0.3001094464864721 3
-0.5802614407225793 4
0.4801266107617444 3
-0.2397424187466515 7
377
0.3398729486619616 3
-0.16767609241246126 2
-0.568157648284274 0
-0.32355461260860496 1
-0.5266027595515174 6
-0.3893198425326111 0
140
0.01410353987738486 3
-0.3967034477955384 2
-0.5977655577761636 0
0.37555375167075394 3
0.4416877066146967 3
0.385972993923257 3
976
0.190817404499074 3
0.4355925337890538 3
-0.5145557595689144 4
-0.339435154484038 5
-0.5883606374454469 4
-0.21839361059131512 7
222
0.44905308921905485 3
-0.4691889683418502 4
-0.335478523741553 4
-0.6308872730220181 6
0.03771487728222623 5
-0.257344189613347 0
578
0.6487574005523625 3
-0.2853283922519465 4
-0.2185561821296499 7
-0.45904148651654697 4
-0.3067423840041379 1
-0.3809524413473539 0
966
0.005630554718478969 3
-0.41964674496225374 7
0.4799574457535485 3
0.3074369576611005 7
-0.6838143993947149 0
-0.17716134117354398 6
29
0.4524667477672689 3
-0.5604047076627281 1
-0.30141210193910406 1
-0.2436702327859264 2
0.5509950832782465 3
-0.16553062090219048 5
350
0.3886262325359928 3
-0.49589244666265286 6
0.30802379261425694 5
-0.22667178524002646 5
-0.6442435190125654 4
0.20433273329974228 3
126
0.1743082638525511 3
-0.5393409857589092 0
-0.5454366382309843 8
-0.3041515449942987 5
-0.3803340305659274 2
-0.379558515619999 2
303
0.3480282529983019 3
-0.14447020337396618 0
0.0017814666257477563 1
-0.45264826547948217 4
-0.48280745227636707 0
-0.6480802678785367 6
724
0.4982878823397707 3
-0.10956044419070193 7
-0.10343649922550122 3
-0.11254149004118551 6
-0.47449635878067026 5
-0.7008524841457373 0
803
0.44900528819734314 3
-0.8473156709832962 0
-0.14409022612851588 7
-0.08355279716497675 5
-0.04305890928798642 2
-0.22550670062775943 5
191
-0.05912057251045178 8
0.08717467216950285 5
-0.48093537317225227 6
0.40407093444687286 3
0.40855748705323536 3
-0.6537690425355263 4
691
0.16876512471405852 3
-0.17152445360362398 6
-0.7693634927934156 4
-0.4016092283195099 0
-0.1838975917164456 7
0.3937882856846321 3
77
0.6721257544553575 3
-0.03148040983560505 6
-0.29592982833517606 6
-0.10388077271166467 7
-0.6468373024023193 1
0.17461895652428547 2
669
0.568700043012552 3
-0.47248551180453546 0
-0.048183356893808385 1
-0.24032622093256448 0
-0.5727447210618692 0
-0.2553876628946772 7
11
0.4186534911979292 3
-0.3979956476670116 4
-0.2310379970835779 4
-0.582315623023692 1
-0.3713184155190962 4
0.368756440117901 5
158
0.2614480141032246 3
-0.5892980831226659 4
-0.4701272981272143 2
0.28382338109385136 3
-0.31729099275520667 5
0.42675958450385937 3
221
0.14404343184198856 3
-0.4467190465398672 4
-0.2787582086720073 1
-0.16738957791785325 2
-0.6330409270391247 6
-0.5227115439681781 0
59
0.38124652119531155 3
-0.5877667980786481 4
0.24980692152647635 5
-0.44916238687898963 0
-0.3959329587378087 4
0.2970993529252545 5
954
0.2092714585900053 3
-0.13403916655673673 7
0.13021634393618056 3
-0.8828280805248547 8
-0.1904961749931507 6
0.32497453711031093 3
946
0.2408593112960109 3
-0.1336161785037075 2
0.40946198744596135 3
-0.20804523829120958 7
-0.5948958117111437 0
-0.5994084933280255 0
304
0.24656882189977952 3
-0.3107593219817377 1
-0.6522968028634598 0
0.24822042415699994 3
-0.40730508506916996 1
-0.4354658764480054 2
22
0.7330257428488105 3
-0.07875000760253596 5
-0.24685681518720573 6
0.5290393564028981 3
-0.1755429596611338 5
-0.2912652366991243 6
271
0.27456382693979814 3
-0.01875697884311179 5
-0.12207264172818096 2
-0.4416550153202163 6
-0.8436766023285188 0
-0.050117750830025135 6
228
0.13519087102326394 3
0.0409050167042033 5
-0.16755250818846704 2
-0.2650256152012408 6
-0.908980104857482 0
-0.23556943193173138 6
241
0.0038500755072551577 3
-0.676785668399362 0
-0.399739958599529 0
-0.43963328827249865 2
-0.3861627650656147 2
0.1993870411693121 3
441
0.2630367226605147 3
-0.4257103323913635 6
-0.7732529755359744 4
-0.056660978394082254 2
-0.3733878338036527 1
-0.09504362338870172 2
833
0.28610198436894635 3
0.30707746725012164 3
-0.2621641944622512 7
-0.7109430857028015 4
-0.4895104574919081 0
-0.10029187248627001 5
669
0.45670678392529296 3
-0.3447119825243758 0
0.31603652839112834 5
-0.5463468900412134 1
-0.15882385015912226 7
-0.4989925206915838 4
252
0.3801895794219452 3
-0.3063786466391888 5
-0.3321600328924171 1
-0.4858235632842421 2
-0.6243122342764288 0
0.1595851516338143 5
991
0.38610568378129384 3
0.12071861167100906 2
-0.6800593403994659 4
-0.21175043863550935 8
-0.5085585221197917 4
-0.26532751949326644 6
425
0.05384752536711313 3
-0.5198539826171776 6
-0.46350410003930287 4
-0.550593584269882 4
-0.27959455306968684 2
0.361510471314815 3
