71
0.33786903224439835 3
0.4681618666277845 3
-0.6858942349751928 1
0.23231127949274785 3
-0.14320784879265785 2
-0.3489141206346324 6
39
0.4710614113579544 3
-0.39926207321261004 1
-0.3485801269615004 2
0.16795485983850234 1
0.6255396880633632 3
-0.2787007399077801 1
420
0.04881898665480448 3
-0.6718314657944779 4
-0.403306319105422 0
-0.5817867046376298 6
-0.10640999748906671 5
-0.18385957636560868 2
510
0.3926390275133519 3
-0.06763651618319626 2
-0.2947970833124354 8
0.17272364595527637 8
-0.8302416356032464 0
-0.18766977396803441 7
569
0.6263285166416895 3
-0.40021954861793424 0
-0.11710957485261751 0
-0.4330053590230753 4
-0.26407353848262716 7
-0.42023062115209914 4
27
0.8403400461065286 3
-0.23158917583534716 7
-0.3991102404495995 6
0.05804915100435925 2
0.07598079304672749 6
-0.2678867142459821 5
53
0.26199316748443624 3
-0.4854758228348349 1
-0.30186888795195765 6
0.5490132061450208 3
-0.4987893191649224 1
-0.23311305129983265 2
15
0.5127717299454814 3
-0.14035994590300555 8
-0.5565179010848108 4
0.48032841398696646 3
0.3953612343713617 5
0.14361815136012154 5
25
0.46822941873050283 3
0.5887467513931509 3
0.054941660960251236 2
-0.4374542119690304 2
0.4015547317455486 5
-0.28019189476776557 6
215
0.3522314111595807 3
0.03649948090159182 5
0.31046342725563153 5
-0.08172685401182281 8
-0.5138264790347467 6
-0.7124018191998229 4
33
0.8103776258462084 3
-0.2843412442969913 5
-0.17297896047802372 7
0.2882539770607418 5
0.37130000716345063 5
0.10752854942074945 5
401
0.47531607481927735 3
-0.647125157782978 0
0.19350805419712455 6
-0.10741324554463566 5
-0.11111098576856264 2
-0.5421946473976847 6
21
0.1213009859405647 3
-0.5843182464761424 0
0.6346789540827625 3
0.3162709578462032 3
-0.21880355654251643 1
-0.3051861198624451 8
290
0.07127142057085564 3
-0.7929490386542764 4
-0.4344633633092937 6
0.27693597533068665 3
-0.2803636928503934 2
-0.1486487737856569 8
277
0.2519261907439555 3
0.06684965913957328 5
-0.09753186862719702 8
0.35668137461547833 3
-0.4943595027742515 6
-0.7422526059984281 0
33
0.4722876059767507 3
-0.5608788395969531 1
-0.4589192249406357 1
0.04760721751552438 5
-0.4266954983088335 6
-0.25964782702040223 1
981
0.4160475339161534 3
-0.5648002121464771 0
-0.4811650984717725 5
-0.10529677300399724 7
-0.36743406719344784 2
0.36095721873216025 2
303
0.558152000199036 3
-0.5242397259403074 6
0.10864487685518376 5
-0.1337249105755801 6
-0.5104296422495023 0
-0.35130410438474347 4
171
0.3260157632082432 3
-0.5287432545039 2
-0.06567305348498514 8
-0.13934209941790218 5
-0.36778350175584074 1
-0.6746483663126681 4
13
0.2856293295417344 3
-0.5354120738597674 0
-0.39264479753760473 5
-0.22787356017031762 1
-0.330891725422135 8
0.5622847738111381 3
465
0.4036781746063403 3
-0.6583423517663094 4
-0.08193596683023033 2
0.06584294113999482 5
-0.42283917438956414 6
-0.462371621383147 1
838
0.5930789732714689 3
-0.2971724547950944 5
-0.6593443055735354 4
0.16553702165582798 7
-0.106736810944316 5
-0.2939654706471928 7
371
0.5282070923487857 3
-0.2688394526525321 0
-0.25782455923972597 4
-0.6543258883439843 6
-0.31347975966498687 4
-0.23629893158033358 4
20
0.6028953282802073 3
-0.3068391481942482 2
-0.3733727655146924 8
-0.15354929142236196 1
0.4503331427533639 3
-0.42021710327735223 1
65
0.6748520145027076 3
-0.5904620381083532 1
0.22546247003103365 7
-0.26809477630402917 7
-0.2705273049822594 6
0.006015218998527192 7
254
0.16981608040704738 3
-0.08404754799894207 8
-0.396005661351586 1
-0.5252006268635481 2
-0.6730853770474755 4
-0.27999714540516235 1
35
0.9120126434231928 3
-0.28571463966259886 2
-0.22219084078233353 7
-0.06219251032303637 5
-0.013852674943706495 7
-0.18213047039903574 5
221
0.22488375457265383 3
-0.28546380689120326 5
-0.13005385943630315 7
-0.594046343949073 8
0.4476151635611928 3
-0.5456860930251355 1
20
0.5527923334718864 3
0.4795407452249252 5
0.28284261822563167 5
-0.6080197582667912 4
0.07997274462397545 1
-0.09152975862308921 1
926
0.5717478532448914 3
-0.11713910623562711 8
-0.6622123977879338 0
-0.3069797841837743 2
0.31346160731830636 2
-0.16841257422187683 7
882
0.5422371013798346 3
0.08647256458075361 2
-0.4555790048189284 8
-0.5976396157315471 0
-0.2729268522821338 6
-0.2434892499512705 7
294
0.5135030847091222 3
-0.1808708596413463 7
-0.29971289747935626 5
-0.3948189525986682 1
-0.6723635301724195 8
-0.07627431529891177 2
7
0.08832954466733507 3
-0.26323167175247447 8
-0.4679098273551863 1
0.35130893046802064 3
-0.47449900447343313 1
0.5961544280778553 3
770
0.5495376589135167 3
-0.5566855663923905 4
-0.46104579585223354 0
-0.20967238087665108 7
-0.11836776973668428 5
-0.34288901924426685 1
578
0.13829118566054988 3
-0.16959868855788637 0
-0.19593992490138737 7
0.5327086947038995 3
-0.017345371250929158 2
-0.7934985591169766 4
44
0.656124874794813 3
-0.5944736128601664 1
0.2879216256800684 3
-0.11314700427502086 2
0.1306189485580288 5
-0.32146361451243893 2
276
0.07856217885291486 3
0.20928313249737351 5
0.42370820789448815 3
-0.6737341054553762 0
-0.021855600633010033 5
-0.5622318000042554 2
478
0.586101691621565 3
-0.15476294307569038 2
-0.689735693718931 4
-0.38296743117332227 6
0.09060438355666955 5
0.043871444924667186 2
101
0.4305428513616606 3
-0.39612367254941677 6
-0.6222364031041686 1
-0.07018805041615522 7
0.4326909355538808 3
-0.2799873920511542 1
51
0.5969536800352885 3
-0.5082533931342859 1
-0.08827789614744669 7
-0.07588921939266247 6
-0.5035474486372317 1
-0.34382059080645355 6
174
0.14861529034306165 3
0.36933292360163844 3
0.19864186698190922 3
-0.16560351871133866 2
-0.3884566314480086 2
-0.7897626325526833 0
251
0.1727561382436083 3
-0.20423271950136804 5
-0.0993207285289333 2
-0.6751530314538189 4
-0.3199800726587288 0
-0.600300627259997 6
79
0.03656291848042689 3
-0.7643721932254774 1
-0.07153580401418608 7
-0.3681709779246674 6
0.07509447930564614 6
0.5177758995470134 3
154
0.5710472937022624 3
-0.6204859590652598 0
-0.49380820891215893 2
0.07054298068696975 5
-0.08433597815218005 8
-0.18156747074865856 3
306
0.27108492623505087 3
-0.07887362883761996 8
-0.5643187778452243 0
-0.6471016366066347 2
-0.28806093704917324 1
-0.3164120712943204 4
352
0.546671471321034 3
-0.39402879814160136 6
-0.2899529662668748 1
0.19409067689672185 5
-0.557529807674658 0
0.33661284694416066 5
782
0.4574805088148733 3
-0.6358950520670196 0
0.5869824772338577 5
-0.08453499541503585 2
-0.17240637458493616 7
0.07021762445589608 7
242
0.41510494841276024 3
-0.4296034334489995 4
-0.420815018947502 0
-0.19453238124067965 1
-0.07943716154422098 8
-0.6495308935030822 6
38
0.3561232305874208 3
-0.4125286895083143 2
0.4660597994883504 3
-0.48603323447116076 6
0.22654840349206687 3
0.445232640463508 3
163
0.42221401226289923 3
-0.5636511867616385 1
-0.2013612095201761 7
0.18202214544163672 2
-0.32323946463017444 6
-0.570850696667749 8
18
0.43224927557416354 3
-0.09219420308089946 8
0.12560245010645285 8
-0.38230437123086536 1
-0.5800613371440122 8
0.5534049422435781 3
65
0.8123702419934927 3
-0.44466412777902203 6
0.15344482727685685 2
0.028556842611888154 7
-0.1248532333506511 5
-0.3199676002876836 7
256
0.026390327649905655 3
-0.35697725779727624 2
-0.14790795371278115 2
-0.6550823493995155 0
-0.328893897358802 1
0.559186860571593 3
398
0.5376864415300328 3
-0.5639665163561918 6
0.10211046829314122 5
-0.5941520733214327 0
-0.08943151922107481 8
-0.14626629285806467 4
425
0.06192190810041643 3
-9.2161732751052E-4 2
0.47501843864195015 3
-0.7754441114380191 0
-0.38388161957820865 6
-0.14779595073946195 2
32
0.6409001832599667 3
-0.3615338650453819 0
-0.38521361859558123 0
0.34091372468929826 5
-0.3932979697756322 8
-0.19810408087675024 0
165
0.7133193708778982 3
-0.41683735060040983 6
-0.36713830392657515 1
-0.31703493499474095 1
0.008237382371729546 8
-0.28644817958795 8
115
0.3942148958586374 3
-0.21419976809863184 7
-0.2462029656169792 1
-0.7015579370740131 8
-0.1214408363018905 2
0.4807970041065282 3
116
0.34850646957504006 3
-0.25701173123631854 1
-0.1359977645526184 8
-0.40995422447665214 4
-0.44854333234902566 4
-0.6517202095584584 2
39
0.42769405721167686 3
-0.3835973336675203 0
-0.2814389547857692 8
0.42129987733406193 3
-0.5881329855395288 4
-0.25947831978171587 5
218
0.3833796083688434 3
-0.5758949734266319 2
0.2909314530777356 3
-0.644192474843593 4
-0.09050149495049954 8
-0.11640223299224119 4
26
0.5230829205460552 3
0.7054604696756647 3
-0.23875133775323787 6
-0.2070535345671752 2
-0.20616052624697603 2
-0.2938269114969709 2
868
0.5363757911497283 3
-0.5260639551276481 4
-0.5933387512212219 4
0.07229210868552115 1
-0.19490091085921707 7
-0.20073449641565871 5
844
0.42406050294758263 3
-0.6244681736930037 4
-0.06844155735402674 2
0.11991460546482338 1
-0.10393957364448952 7
-0.6327282161703717 1
982
0.5245562822481422 3
-0.3031388431590068 7
-0.19018159760865608 5
-0.25163372600718936 8
-0.5968909445273193 4
-0.4209277571392377 0
151
0.3252789293345157 3
-0.029388057093118175 4
0.237612571170004 3
-0.6180917236308006 2
-0.20518654159151833 0
-0.6424416943054682 4
55
0.6217795616264339 3
-0.31518456292842967 6
-0.6974637710105737 1
-0.04096025035303857 5
-0.1355236263555884 7
0.08688360462947942 7
932
0.5603885872744497 3
-0.12992261079839837 5
-0.23345061864730143 7
-0.6527533016590076 4
-0.432945281017009 0
-0.03251255030652864 5
167
0.6142317104107664 3
0.028297374893576026 2
-0.16599399572458376 6
0.11871685185327878 7
-0.7128406430661205 8
-0.2685687706389372 7
758
0.5312832084541871 3
-0.454965997165719 7
-0.5502893350815773 0
0.35835393716744346 7
-0.27683233650012273 1
-0.05359155453593519 2
148
0.38101844633871307 3
0.3535653009058765 5
0.3783682460976709 3
-0.444751905181893 8
-0.568026791725544 8
-0.25728447020565476 7
987
0.38948888615452665 3
-0.6972820586506383 4
-0.37247747149635774 8
-0.3997367180724969 7
-0.17157649481041506 2
0.1847396387538814 7
28
0.2629642722813142 3
0.5969203446663358 5
-0.4314117986778039 0
0.41736703319150975 0
0.3944531497925965 3
-0.24213885646913533 0
793
0.3729722311553856 3
-0.1560947711919112 7
-0.5005069345761044 8
0.33929916073879984 8
-0.6701067909374342 4
-0.14782392869975253 6
97
0.5558386046362952 3
0.2687717322326799 5
-0.35446614240433194 8
-0.5850243451159722 8
-0.2116575766185345 6
-0.3257399903591968 2
601
0.4968438155421806 3
-0.011801103253498903 2
-0.844550236624584 0
-0.10689258025673207 1
-0.021417722999166888 2
-0.16690450013236943 7
174
0.2867312033600335 3
-0.0010809268039340253 5
-0.6214987631595773 2
0.03573313795331016 1
-0.4060542192246029 4
-0.604455498701083 0
480
0.2764987330623828 3
-0.2240243694307169 2
-0.3820902525101267 6
-0.1063509871723128 8
-0.6263818153385838 4
-0.5689497872338379 1
327
0.14905155596297434 3
0.34972948221661804 3
-0.3761403561666387 0
0.3285754831864074 3
-0.6011222130079861 6
-0.494653001884702 4
976
0.5070206953547661 3
-0.1896368212338607 7
-0.2688540487720005 6
-0.2863519600861551 8
-0.6996548609466795 0
-0.25133846001296484 1
