40
0.43525722221987967 3
-0.2903338729332898 6
-0.6387279976185035 1
0.5640523174529117 3
-0.011354336935609121 5
186
0.045658310458428206 3
0.42495691182985734 3
0.4121148454422126 3
-0.6715015391173004 4
-0.44336664162220235 2
335
0.21438374366475135 3
0.12414680708844211 5
-0.42822136105107944 6
-0.19616763732435202 2
-0.846623827179565 4
737
0.47493659777110747 3
-0.36401047511826473 2
-0.7029819649626867 4
0.3612724284070657 2
-0.1312638240789969 7
258
0.4139565307029449 3
-0.27851382484724796 5
-0.4757407707151038 6
-0.6298424074003304 0
-0.35782579696955014 1
33
0.7541616113807393 3
-0.3780902748475541 1
-0.35078783933293123 1
-0.26594676049277594 1
-0.307421893079916 2
642
0.23401250077593863 3
-0.10455104244622725 2
0.35895359057956133 3
-0.8860955091880882 0
-0.1424580549170242 7
38
0.8979463901770942 3
-0.16066363880392226 2
-0.18870898398208116 6
-0.16077736369376258 6
-0.326219303877534 2
35
0.620859085570691 3
-0.2150888284367022 6
-0.099383101015981 6
0.07058183987249386 5
-0.7439166585436258 1
944
0.5591972516068069 3
0.01611828262639303 5
-0.34486434551974265 5
-0.14811274930656487 7
-0.7390330381266182 4
198
0.333191829924283 3
-0.08778136596372575 5
-0.7574512146451046 0
-0.30397385101789876 1
-0.46383746247069596 2
843
0.3572860807913292 3
-0.231591564958781 7
-0.6571258552606216 4
-0.3520071641048715 4
0.5128241124201915 3
226
0.3527899262719133 3
-0.22077430553276173 6
-0.43845727958562947 0
-0.4609846916076023 6
-0.6496509078108007 4
61
0.25904933645577033 3
-0.41455370707942735 1
0.522936703589269 3
-0.5707086055441277 1
-0.40232767345236825 6
30
0.735483553382629 3
-0.3247490088770886 2
0.5216624531085946 3
-0.17806064744297187 5
-0.22308006362273422 7
407
0.18666105992413073 3
0.39876623319570925 3
-0.7724397221908409 0
-0.4387367342253072 6
-0.13034605323504705 2
50
0.4310319575774243 3
-0.6604114846300145 1
-0.3180998148499367 2
0.045925897885592364 5
0.5241864574858758 3
251
0.4934307677147732 3
-0.3564041000600826 1
-0.2907874498341809 0
-0.5161996461580756 6
-0.5277146759926084 0
25
0.7250445106244041 3
0.008391727696979715 5
0.5309117918434897 5
0.04237250863851967 5
-0.4365515734857586 0
329
0.255475485199277 3
-0.4425428551023414 0
-0.5890069645551544 6
0.4661539768875644 3
-0.417922676337972 0
779
0.6406098293957104 3
-0.13212429237836273 7
0.07377868898589045 2
-0.1300870868562785 2
-0.741482483090387 0
46
0.6657551156438044 3
0.21499776008174318 5
-0.6655032786678724 1
-0.09180175551523573 7
-0.24335963699958735 2
31
0.7200113821622263 3
-0.16971483397492623 2
0.6337016037282466 3
-0.15184490308210474 5
-0.16776736132495615 7
873
0.4933671788016351 3
-0.048287420059141474 7
-0.4777390869073144 4
-0.7077034192493786 0
-0.1586769900428267 7
909
0.5780035536103734 3
-0.4528083878689972 0
-0.2645959645239792 7
-0.5076498131183755 4
-0.3649069726488706 4
138
0.031476492028769565 3
0.35452334707923905 3
-0.3566317837182464 0
-0.6413744294170853 2
-0.5785974757611255 4
221
0.25564004022853676 3
-0.639765748678464 4
0.32544929555368507 3
0.44500190937280154 3
-0.4705358788955498 2
151
0.27753717847582293 3
0.4666905788773853 3
-0.5139339249872262 2
-0.6545450296558866 0
-0.11231982483412682 5
60
0.38622570095559433 3
-0.6746615213640428 1
-0.2002531976655539 2
0.5538698714456384 3
-0.22088087703924916 6
989
0.564818576618698 3
-0.4593041886961901 4
-0.22195357922709072 7
-0.1732393738251161 1
-0.6250954853280639 0
