38
0.9013201743962898 3
-0.139939299956296 6
-0.12169083501600146 6
-0.38282026027426047 2
-0.08172468752243231 2
25
0.6082866281595302 3
-0.4122672791715736 1
-0.4161521874828835 0
-0.5350660975468323 5
-0.023338736812264775 5
837
0.5531002135564518 3
-0.390590523697087 1
-0.03945570081068843 2
-0.13437733943371788 7
-0.722430048435207 0
982
0.6263004916020557 3
0.17059061929479408 7
-0.45652313886860674 4
-0.3528695847266268 7
-0.4956977049372479 0
849
0.49788320321701496 3
-0.11929363395594679 7
-0.8263575884400239 4
-0.21699030278229223 6
0.08904880334954787 5
29
0.8714177195605171 3
-0.409523265436749 2
-0.16228792077461135 6
-0.20406625252697255 6
-0.07029543692318417 5
531
0.2633436545866461 3
0.3002434323479298 3
-0.49445538111100334 6
-0.09255850755102342 2
-0.766453390423177 0
50
0.6609736759145094 3
-0.21201197370773284 7
-0.026588331547859258 5
-0.36765825653651013 6
0.6182921556826089 3
105
0.569222145622651 3
-0.33174307810405673 6
0.4371793685885319 3
-0.6096059961463354 1
-0.05645713600385687 7
11
0.6077854532535802 3
0.15257997507187204 5
-0.6884669108527258 4
-0.35769968787191203 0
-0.0733514824502445 1
24
0.36667895697648334 3
-0.3783434694124966 0
0.46347141327724634 3
-0.5157303424199221 4
-0.49154778470233756 4
81
0.6077173812486883 3
0.1739892644972022 2
-0.10956862986752118 7
-0.37204313205412215 6
-0.6708099161523122 1
78
0.7379969192393416 3
-0.16011571988780626 5
-0.2699277431099109 6
-0.5937194649475043 1
-0.0660281294607802 7
30
0.8763497042176173 3
-0.1912717519123938 5
0.11987663351740452 5
-0.3545168541097947 2
-0.23531618245816982 5
279
0.4177434253973667 3
-0.37486195825503404 1
-0.5767316611113356 6
-0.4525642299349505 0
-0.3841030482118316 4
935
0.5341982294753009 3
-0.6731298168389912 4
0.22864048566914763 7
-0.43633194687222093 7
-0.13735523928643364 1
44
0.5135872801618476 3
0.14884942512298088 2
0.3731855483644526 3
-0.5185489811317066 2
-0.5530926278262128 1
290
0.2155579501607408 3
-0.4895454058974709 1
-0.4622810705009753 6
-0.6109482246624438 0
0.3562562902258153 3
801
0.14039725577430479 3
-0.3643216364660617 1
0.47744819346271294 3
-0.1492925464458102 7
-0.7728604750591485 4
843
0.41114360988610327 3
-0.06581889214565008 2
-0.15103121649052306 7
-0.4529691246864879 1
-0.7737165819682894 4
47
0.28779604935822267 3
0.547458404083911 3
-0.3769394555199288 6
-0.33462405989930294 2
0.6028317469912678 3
28
0.23228296831629636 3
0.3230166016499086 3
0.05721211865878731 0
-0.7114832745764335 4
-0.5763880820812336 0
69
0.3727210795788505 3
-0.2980271561388355 6
0.5220711416815834 3
-0.7035902095284702 1
-0.0682740882058922 7
344
0.4533740017825175 3
-0.6074286336067388 4
-0.5001260693237575 6
-0.353242809657054 1
-0.22489086640127126 1
945
0.44921109782627244 3
0.16271336624353816 5
-0.18063536107065223 6
-0.8503073401155169 4
-0.12681499797721518 7
15
0.5471446079399817 3
-0.3565819323196797 1
0.292633033760713 3
-0.4024138300025346 4
0.570886258829252 5
600
0.47994720478218983 3
-0.44059387052452503 6
-0.03720792586803715 5
-0.46475429575397215 1
-0.5984536211844731 4
972
0.472102572902133 3
-0.603345603497818 4
-0.5721800063954748 0
-0.1844486948163638 7
-0.22733667249446166 6
851
0.5378617077813679 3
-0.1738206683422666 6
-0.7749035370075045 0
-0.13687168414558104 7
-0.2475516289018708 1
26
0.5757847731067935 3
-0.4230934235174645 1
-0.4481516767319999 4
-0.4254231913571764 1
0.32808388093961893 5
260
-0.020347678226594692 3
0.530615917010221 3
0.15633830532046747 3
-0.4818582852805152 6
-0.6792669930169102 4
699
0.4473560694598301 3
-0.6068025518949333 4
-0.19732545773984492 7
-0.5817633562914386 0
-0.23297482940337094 6
232
0.5034484068812545 3
-0.09080532090075008 5
-0.3908476164933166 4
-0.48062584748093184 0
-0.5954250840530385 6
825
0.47535542114722323 3
-0.07421400704835192 2
-0.14387289534810443 7
-0.7906764395251862 0
-0.3502297284750413 1
874
0.5462933984911882 3
-0.15838671910569296 6
-0.1119235472848555 7
-0.6939876127984042 4
-0.42700290727514867 1
358
0.47861291848718673 3
-0.12379920070809354 6
-0.6769043261751999 4
-0.392241366836885 6
-0.3788808196629192 1
24
0.3725378840389537 3
0.4084501525995113 5
-0.3903988285710716 4
-0.5918591583508447 1
0.4378075937255771 3
235
0.29438451193163134 3
-0.40505997826098505 0
-0.5623707022050872 4
-0.21088203236368028 5
-0.6233234592677435 2
891
0.25440171696800473 3
-0.7131490996274563 0
-0.13945391349465383 7
-0.480521012076945 1
0.41994081853024695 3
14
0.5522697033479226 3
-0.598206692861927 0
-0.11102524119240412 1
-0.47303094079835273 5
-0.3179025829476501 5
179
0.25532145793163236 3
-0.13978179411319272 5
-0.6460802757690188 2
-0.5580744224050858 4
-0.4317467075423056 0
44
0.1624268047758353 3
-0.3522525341903707 6
0.606777649712597 3
-0.6746026283528036 1
-0.16207363411585646 2
42
0.8019278545081319 3
-0.30395545407143665 6
-0.18151256592185877 7
-0.40910307234589405 5
0.25339822950017654 5
241
0.2803052175386635 3
-0.6256995812680576 0
-0.4138182563107804 2
0.583665796700237 3
-0.13423005448767047 5
694
0.5818685268574204 3
-0.5190902831824195 4
-0.12223294205030255 1
-0.576772134447623 0
-0.2106354864708974 7
34
0.5370113275269226 3
0.7210249986599844 3
-0.33163006030554176 6
-0.21423695087755984 2
-0.18938272728939892 7
57
0.6583171224085802 3
-0.3735855190586128 4
-0.070372006909212 0
-0.5289710298407998 4
-0.37721327723998105 0
341
0.05766767333563271 3
-0.33524995755287995 4
-0.48511383385244883 0
-0.7424523888474154 2
-0.31258746601965964 4
129
0.1771586041976829 3
-0.643166372573229 2
-0.4738319008233279 4
-0.5119491484815691 0
-0.2614254105493025 5
685
0.25702281572984753 3
0.371052890897448 3
0.09148637775183861 5
-0.16001870162937218 7
-0.8730883587390483 0
